net 
{ 
}
node L_Tp1 
{
  states = ( "[0_0.5]" "_0.5_1]" );
}
node L_Tp2 
{
  states = ( "[0_0.5]" "_0.5_1]" );
}
node Act1 
{
  states = ( "[0_1]" "_1_2]" "_2_3]" "_3_4]" );
}
node Act2 
{
  states = ( "[0_1]" "_1_2]" "_2_3]" "_3_4]" );
}
node Ch_Nn1 
{
  states = ( "[2.77259_3.18848]" "_3.18848_3.60437]" "_3.60437_4.02025]" "_4.02025_4.43614]" "_4.43614_4.85203]" );
}
node Ch_Nn2 
{
  states = ( "[2.77259_3.32711]" "_3.32711_3.88162]" "_3.88162_4.43614]" "_4.43614_4.99066]" "_4.99066_5.54518]" );
}
potential ( L_Tp1 ) 
{
  data = ( 0.9845679 0.0154321 );
}
potential ( L_Tp2 ) 
{
  data = ( 0.4969136 0.5030864 );
}
potential ( Act1 ) 
{
  data = ( 0.92746914 0.01388889 0.00154321 0.05709877 );
}
potential ( Act2 | L_Tp2 ) 
{
  data = ((0.001552795 0.374223602 0.001552795 0.622670807)(0.958588957 0.001533742 0.038343558 0.001533742)) ;
}
potential ( Ch_Nn1 | Act1 ) 
{
  data = ((0.0602329451 0.2332778702 0.0003327787 0.2332778702 0.4728785358)(0.91111111 0.02222222 0.02222222 0.02222222 0.02222222)(0.2 0.2 0.2 0.2 0.2)(0.870270270 0.005405405 0.005405405 0.005405405 0.113513514)) ;
}
potential ( Ch_Nn2 | L_Tp1 Act2 Ch_Nn1 ) 
{
  data = ((((0.2 0.2 0.2 0.2 0.2)(0.0007117438 0.9971530249 0.0007117438 0.0007117438 0.0007117438)(0.2 0.2 0.2 0.2 0.2)(0.0001514005 0.9085541257 0.0001514005 0.0001514005 0.0909916730)(0.0001387925 0.9994448300 0.0001387925 0.0001387925 0.0001387925))((0.9977839335 0.0005540166 0.0005540166 0.0005540166 0.0005540166)(0.2 0.2 0.2 0.2 0.2)(0.2 0.2 0.2 0.2 0.2)(0.002469136 0.002469136 0.990123457 0.002469136 0.002469136)(0.4733245729 0.0002628121 0.5258869908 0.0002628121 0.0002628121))((0.002469136 0.002469136 0.002469136 0.990123457 0.002469136)(0.2 0.2 0.2 0.2 0.2)(0.2 0.2 0.2 0.2 0.2)(0.2 0.2 0.2 0.2 0.2)(0.004878049 0.004878049 0.004878049 0.004878049 0.980487805))((0.997507788 0.000623053 0.000623053 0.000623053 0.000623053)(0.000192123 0.999231508 0.000192123 0.000192123 0.000192123)(0.2 0.2 0.2 0.2 0.2)(0.2 0.2 0.2 0.2 0.2)(0.6867394696 0.0003120125 0.3123244930 0.0003120125 0.0003120125)))(((0.2 0.2 0.2 0.2 0.2)(0.002469136 0.002469136 0.002469136 0.990123457 0.002469136)(0.2 0.2 0.2 0.2 0.2)(0.2 0.2 0.2 0.2 0.2)(0.2 0.2 0.2 0.2 0.2))((0.2 0.2 0.2 0.2 0.2)(0.2 0.2 0.2 0.2 0.2)(0.2 0.2 0.2 0.2 0.2)(0.2 0.2 0.2 0.2 0.2)(0.2 0.2 0.2 0.2 0.2))((0.2 0.2 0.2 0.2 0.2)(0.2 0.2 0.2 0.2 0.2)(0.2 0.2 0.2 0.2 0.2)(0.2 0.2 0.2 0.2 0.2)(0.2 0.2 0.2 0.2 0.2))((0.2 0.2 0.2 0.2 0.2)(0.2 0.2 0.2 0.2 0.2)(0.2 0.2 0.2 0.2 0.2)(0.2 0.2 0.2 0.2 0.2)(0.2 0.2 0.2 0.2 0.2)))) ;
}
