net 
{ 
}
node L_Tp2 
{
  states = ( "[0_0.5]" "_0.5_1]" );
}
node L_Tp3 
{
  states = ( "[0_0.5]" "_0.5_1]" );
}
node Act1 
{
  states = ( "[0_1]" "_1_2]" "_2_3]" "_3_4]" );
}
node Act2 
{
  states = ( "[0_1]" "_1_2]" "_2_3]" "_3_4]" );
}
node Act3 
{
  states = ( "[0_1]" "_1_2]" "_2_3]" "_3_4]" );
}
node Ch_Nn1 
{
  states = ( "[2.77259_3.18848]" "_3.18848_3.60437]" "_3.60437_4.02025]" "_4.02025_4.43614]" "_4.43614_4.85203]" );
}
node Ch_Nn2 
{
  states = ( "[2.77259_3.18848]" "_3.18848_3.60437]" "_3.60437_4.02025]" "_4.02025_4.43614]" "_4.43614_4.85203]" );
}
node Ch_Nn3 
{
  states = ( "[2.77259_3.18848]" "_3.18848_3.60437]" "_3.60437_4.02025]" "_4.02025_4.43614]" "_4.43614_4.85203]" );
}
potential ( L_Tp2 ) 
{
  data = ( 0.8349057 0.1650943 );
}
potential ( L_Tp3 ) 
{
  data = ( 0.1650943 0.8349057 );
}
potential ( Act1 ) 
{
  data = ( 0.785377358 0.040094340 0.002358491 0.172169811 );
}
potential ( Act2 | L_Tp2 ) 
{
  data = ((0.035310734 0.577683616 0.001412429 0.385593220)(0.521428571 0.007142857 0.292857143 0.178571429)) ;
}
potential ( Act3 | Act1 ) 
{
  data = ((0.7334834835 0.2289789790 0.0007507508 0.0367867868)(0.01470588 0.01470588 0.95588235 0.01470588)(0.25 0.25 0.25 0.25)(0.770547945 0.003424658 0.003424658 0.222602740)) ;
}
potential ( Ch_Nn1 ) 
{
  data = ( 0.105660377 0.152830189 0.001886792 0.294339623 0.445283019 );
}
potential ( Ch_Nn2 | Act2 ) 
{
  data = ((0.248979592 0.493877551 0.004081633 0.248979592 0.004081633)(0.6058536585 0.0009756098 0.0009756098 0.3912195122 0.0009756098)(0.00952381 0.00952381 0.00952381 0.00952381 0.96190476)(0.269798658 0.028187919 0.001342282 0.404026846 0.296644295)) ;
}
potential ( Ch_Nn3 | L_Tp3 Act3 Ch_Nn1 Ch_Nn2 ) 
{
  data = (((((0.2 0.2 0.2 0.2 0.2)(0.2 0.2 0.2 0.2 0.2)(0.2 0.2 0.2 0.2 0.2)(0.2 0.2 0.2 0.2 0.2)(0.2 0.2 0.2 0.2 0.2))((0.2 0.2 0.2 0.2 0.2)(0.2 0.2 0.2 0.2 0.2)(0.2 0.2 0.2 0.2 0.2)(0.2 0.2 0.2 0.2 0.2)(0.2 0.2 0.2 0.2 0.2))((0.2 0.2 0.2 0.2 0.2)(0.2 0.2 0.2 0.2 0.2)(0.2 0.2 0.2 0.2 0.2)(0.2 0.2 0.2 0.2 0.2)(0.2 0.2 0.2 0.2 0.2))((0.2 0.2 0.2 0.2 0.2)(0.2 0.2 0.2 0.2 0.2)(0.2 0.2 0.2 0.2 0.2)(0.2 0.2 0.2 0.2 0.2)(0.2 0.2 0.2 0.2 0.2))((0.2 0.2 0.2 0.2 0.2)(0.2 0.2 0.2 0.2 0.2)(0.2 0.2 0.2 0.2 0.2)(0.2 0.2 0.2 0.2 0.2)(0.2 0.2 0.2 0.2 0.2)))(((0.2 0.2 0.2 0.2 0.2)(0.2 0.2 0.2 0.2 0.2)(0.2 0.2 0.2 0.2 0.2)(0.2 0.2 0.2 0.2 0.2)(0.2 0.2 0.2 0.2 0.2))((0.2 0.2 0.2 0.2 0.2)(0.9960199005 0.0009950249 0.0009950249 0.0009950249 0.0009950249)(0.2 0.2 0.2 0.2 0.2)(9.996365e-01 9.086779e-05 9.086779e-05 9.086779e-05 9.086779e-05)(0.2 0.2 0.2 0.2 0.2))((0.2 0.2 0.2 0.2 0.2)(0.2 0.2 0.2 0.2 0.2)(0.2 0.2 0.2 0.2 0.2)(0.2 0.2 0.2 0.2 0.2)(0.2 0.2 0.2 0.2 0.2))((0.2 0.2 0.2 0.2 0.2)(0.2 0.2 0.2 0.2 0.2)(0.2 0.2 0.2 0.2 0.2)(0.2 0.2 0.2 0.2 0.2)(0.2 0.2 0.2 0.2 0.2))((0.0009950249 0.9960199005 0.0009950249 0.0009950249 0.0009950249)(0.2 0.2 0.2 0.2 0.2)(0.2 0.2 0.2 0.2 0.2)(0.9960199005 0.0009950249 0.0009950249 0.0009950249 0.0009950249)(0.2 0.2 0.2 0.2 0.2)))(((0.2 0.2 0.2 0.2 0.2)(0.2 0.2 0.2 0.2 0.2)(0.2 0.2 0.2 0.2 0.2)(0.2 0.2 0.2 0.2 0.2)(0.2 0.2 0.2 0.2 0.2))((0.2 0.2 0.2 0.2 0.2)(0.2 0.2 0.2 0.2 0.2)(0.2 0.2 0.2 0.2 0.2)(0.2 0.2 0.2 0.2 0.2)(0.2 0.2 0.2 0.2 0.2))((0.2 0.2 0.2 0.2 0.2)(0.2 0.2 0.2 0.2 0.2)(0.2 0.2 0.2 0.2 0.2)(0.2 0.2 0.2 0.2 0.2)(0.2 0.2 0.2 0.2 0.2))((0.2 0.2 0.2 0.2 0.2)(0.2 0.2 0.2 0.2 0.2)(0.2 0.2 0.2 0.2 0.2)(0.2 0.2 0.2 0.2 0.2)(0.2 0.2 0.2 0.2 0.2))((0.2 0.2 0.2 0.2 0.2)(0.2 0.2 0.2 0.2 0.2)(0.2 0.2 0.2 0.2 0.2)(0.2 0.2 0.2 0.2 0.2)(0.2 0.2 0.2 0.2 0.2)))(((0.2 0.2 0.2 0.2 0.2)(0.2 0.2 0.2 0.2 0.2)(0.2 0.2 0.2 0.2 0.2)(0.2 0.2 0.2 0.2 0.2)(0.2 0.2 0.2 0.2 0.2))((0.2 0.2 0.2 0.2 0.2)(0.2 0.2 0.2 0.2 0.2)(0.2 0.2 0.2 0.2 0.2)(0.2 0.2 0.2 0.2 0.2)(0.2 0.2 0.2 0.2 0.2))((0.2 0.2 0.2 0.2 0.2)(0.2 0.2 0.2 0.2 0.2)(0.2 0.2 0.2 0.2 0.2)(0.2 0.2 0.2 0.2 0.2)(0.2 0.2 0.2 0.2 0.2))((0.0003327787 0.9986688852 0.0003327787 0.0003327787 0.0003327787)(0.2 0.2 0.2 0.2 0.2)(0.2 0.2 0.2 0.2 0.2)(0.2 0.2 0.2 0.2 0.2)(0.2 0.2 0.2 0.2 0.2))((0.2 0.2 0.2 0.2 0.2)(0.2 0.2 0.2 0.2 0.2)(0.2 0.2 0.2 0.2 0.2)(0.2 0.2 0.2 0.2 0.2)(0.2 0.2 0.2 0.2 0.2))))((((0.0001665279 0.0001665279 0.0001665279 0.9993338884 0.0001665279)(0.2 0.2 0.2 0.2 0.2)(0.2 0.2 0.2 0.2 0.2)(0.2 0.2 0.2 0.2 0.2)(0.0001998002 0.0001998002 0.0001998002 0.9992007992 0.0001998002))((0.2 0.2 0.2 0.2 0.2)(0.2 0.2 0.2 0.2 0.2)(0.2 0.2 0.2 0.2 0.2)(0.2 0.2 0.2 0.2 0.2)(0.2 0.2 0.2 0.2 0.2))((0.2 0.2 0.2 0.2 0.2)(0.2 0.2 0.2 0.2 0.2)(0.2 0.2 0.2 0.2 0.2)(0.2 0.2 0.2 0.2 0.2)(0.2 0.2 0.2 0.2 0.2))((0.2 0.2 0.2 0.2 0.2)(0.2 0.2 0.2 0.2 0.2)(0.2 0.2 0.2 0.2 0.2)(6.664445e-05 9.997334e-01 6.664445e-05 6.664445e-05 6.664445e-05)(0.0001249219 0.0001249219 0.0001249219 0.9995003123 0.0001249219))((3.332778e-05 3.332778e-05 3.332778e-05 9.998667e-01 3.332778e-05)(0.2 0.2 0.2 0.2 0.2)(0.2 0.2 0.2 0.2 0.2)(0.0001249219 0.3748906933 0.0001249219 0.4998126171 0.1250468457)(0.0003327787 0.0003327787 0.0003327787 0.9986688852 0.0003327787)))(((0.2 0.2 0.2 0.2 0.2)(0.2 0.2 0.2 0.2 0.2)(0.2 0.2 0.2 0.2 0.2)(0.2 0.2 0.2 0.2 0.2)(0.2 0.2 0.2 0.2 0.2))((0.2 0.2 0.2 0.2 0.2)(0.2 0.2 0.2 0.2 0.2)(0.2 0.2 0.2 0.2 0.2)(0.2 0.2 0.2 0.2 0.2)(0.2 0.2 0.2 0.2 0.2))((0.2 0.2 0.2 0.2 0.2)(0.2 0.2 0.2 0.2 0.2)(0.2 0.2 0.2 0.2 0.2)(0.2 0.2 0.2 0.2 0.2)(0.2 0.2 0.2 0.2 0.2))((0.2 0.2 0.2 0.2 0.2)(0.0001998002 0.9992007992 0.0001998002 0.0001998002 0.0001998002)(0.2 0.2 0.2 0.2 0.2)(0.2 0.2 0.2 0.2 0.2)(0.2 0.2 0.2 0.2 0.2))((0.2 0.2 0.2 0.2 0.2)(0.2 0.2 0.2 0.2 0.2)(0.2 0.2 0.2 0.2 0.2)(0.2 0.2 0.2 0.2 0.2)(0.2 0.2 0.2 0.2 0.2)))(((0.2 0.2 0.2 0.2 0.2)(0.2 0.2 0.2 0.2 0.2)(0.2 0.2 0.2 0.2 0.2)(0.2 0.2 0.2 0.2 0.2)(0.2 0.2 0.2 0.2 0.2))((0.2 0.2 0.2 0.2 0.2)(0.2 0.2 0.2 0.2 0.2)(0.2 0.2 0.2 0.2 0.2)(0.2 0.2 0.2 0.2 0.2)(0.2 0.2 0.2 0.2 0.2))((0.2 0.2 0.2 0.2 0.2)(0.2 0.2 0.2 0.2 0.2)(0.2 0.2 0.2 0.2 0.2)(0.2 0.2 0.2 0.2 0.2)(0.2 0.2 0.2 0.2 0.2))((0.2 0.2 0.2 0.2 0.2)(0.2 0.2 0.2 0.2 0.2)(0.2 0.2 0.2 0.2 0.2)(0.2 0.2 0.2 0.2 0.2)(0.2 0.2 0.2 0.2 0.2))((0.0002496879 0.0002496879 0.0002496879 0.9990012484 0.0002496879)(0.2 0.2 0.2 0.2 0.2)(0.2 0.2 0.2 0.2 0.2)(0.2 0.2 0.2 0.2 0.2)(0.2 0.2 0.2 0.2 0.2)))(((0.2 0.2 0.2 0.2 0.2)(0.2 0.2 0.2 0.2 0.2)(0.2 0.2 0.2 0.2 0.2)(0.2 0.2 0.2 0.2 0.2)(0.2 0.2 0.2 0.2 0.2))((0.2 0.2 0.2 0.2 0.2)(0.0009950249 0.9960199005 0.0009950249 0.0009950249 0.0009950249)(0.2 0.2 0.2 0.2 0.2)(0.0003327787 0.9986688852 0.0003327787 0.0003327787 0.0003327787)(0.2 0.2 0.2 0.2 0.2))((0.2 0.2 0.2 0.2 0.2)(0.2 0.2 0.2 0.2 0.2)(0.2 0.2 0.2 0.2 0.2)(0.2 0.2 0.2 0.2 0.2)(0.2 0.2 0.2 0.2 0.2))((0.2 0.2 0.2 0.2 0.2)(0.2 0.2 0.2 0.2 0.2)(0.2 0.2 0.2 0.2 0.2)(0.2 0.2 0.2 0.2 0.2)(0.2 0.2 0.2 0.2 0.2))((0.2 0.2 0.2 0.2 0.2)(0.2 0.2 0.2 0.2 0.2)(0.2 0.2 0.2 0.2 0.2)(0.2 0.2 0.2 0.2 0.2)(0.2 0.2 0.2 0.2 0.2))))) ;
}
