net 
{ 
}
node L_Tp1 
{
  states = ( "[0_0.5]" "_0.5_1]" );
}
node Act1 
{
  states = ( "[0_1]" "_1_2]" "_2_3]" "_3_4]" );
}
node Ch_Nn1 
{
  states = ( "[2.77259_3.18848]" "_3.18848_3.60437]" "_3.60437_4.02025]" "_4.02025_4.43614]" "_4.43614_4.85203]" );
}
potential ( L_Tp1 ) 
{
  data = ( 0.97457627 0.02542373 );
}
potential ( Act1 ) 
{
  data = ( 0.614406780 0.326271186 0.004237288 0.055084746 );
}
potential ( Ch_Nn1 | L_Tp1 Act1 ) 
{
  data = (((0.0007117438 0.0576512456 0.0007117438 0.5416370107 0.3992882562)(0.89019608 0.00130719 0.00130719 0.10588235 0.00130719)(0.2 0.2 0.2 0.2 0.2)(0.968 0.008 0.008 0.008 0.008))((0.02222222 0.91111111 0.02222222 0.02222222 0.02222222)(0.2 0.2 0.2 0.2 0.2)(0.2 0.2 0.2 0.2 0.2)(0.2 0.2 0.2 0.2 0.2))) ;
}
