net 
{ 
}
node L_Tp3 
{
  states = ( "[0_0.5]" "_0.5_1]" );
}
node Act1 
{
  states = ( "[0_0.75]" "_0.75_1.5]" "_1.5_2.25]" "_2.25_3]" );
}
node Act2 
{
  states = ( "[0_1]" "_1_2]" "_2_3]" "_3_4]" );
}
node Act3 
{
  states = ( "[0_1]" "_1_2]" "_2_3]" "_3_4]" );
}
node Ch_Nn1 
{
  states = ( "[4.15888_4.57477]" "_4.57477_4.99066]" "_4.99066_5.40655]" "_5.40655_5.82244]" "_5.82244_6.23832]" );
}
node Ch_Nn2 
{
  states = ( "[4.15888_4.65999]" "_4.65999_5.16109]" "_5.16109_5.6622]" "_5.6622_6.1633]" "_6.1633_6.66441]" );
}
node Ch_Nn3 
{
  states = ( "[4.85203_5.21451]" "_5.21451_5.57698]" "_5.57698_5.93946]" "_5.93946_6.30193]" "_6.30193_6.66441]" );
}
potential ( L_Tp3 ) 
{
  data = ( 0.127907 0.872093 );
}
potential ( Act1 ) 
{
  data = ( 0.191860465 0.005813953 0.122093023 0.680232558 );
}
potential ( Act2 ) 
{
  data = ( 0.44767442 0.33139535 0.12209302 0.09883721 );
}
potential ( Act3 | Act1 Act2 ) 
{
  data = (((0.001937984 0.001937984 0.994186047 0.001937984)(0.25 0.25 0.25 0.25)(0.25 0.25 0.25 0.25)(0.25 0.25 0.25 0.25))((0.25 0.25 0.25 0.25)(0.25 0.25 0.25 0.25)(0.25 0.25 0.25 0.25)(0.25 0.25 0.25 0.25))((0.25 0.25 0.25 0.25)(0.25 0.25 0.25 0.25)(0.00308642 0.99074074 0.00308642 0.00308642)(0.25 0.25 0.25 0.25))((0.995762712 0.001412429 0.001412429 0.001412429)(0.996666667 0.001111111 0.001111111 0.001111111)(0.25 0.25 0.25 0.25)(0.003846154 0.003846154 0.003846154 0.988461538))) ;
}
potential ( Ch_Nn1 | L_Tp3 Act3 ) 
{
  data = (((0.004878049 0.004878049 0.004878049 0.004878049 0.980487805)(0.2 0.2 0.2 0.2 0.2)(0.2 0.2 0.2 0.2 0.2)(0.2 0.2 0.2 0.2 0.2))((0.001242236 0.995031056 0.001242236 0.001242236 0.001242236)(0.004878049 0.980487805 0.004878049 0.004878049 0.004878049)(0.003076923 0.003076923 0.003076923 0.987692308 0.003076923)(0.975757576 0.006060606 0.006060606 0.006060606 0.006060606))) ;
}
potential ( Ch_Nn2 | Act2 ) 
{
  data = ((0.002597403 0.418181818 0.002597403 0.002597403 0.574025974)(0.985964912 0.003508772 0.003508772 0.003508772 0.003508772)(0.00952381 0.00952381 0.00952381 0.00952381 0.96190476)(0.01176471 0.01176471 0.01176471 0.01176471 0.95294118)) ;
}
potential ( Ch_Nn3 | Ch_Nn1 ) 
{
  data = ((0.00952381 0.00952381 0.00952381 0.00952381 0.96190476)(0.001587302 0.001587302 0.001587302 0.001587302 0.993650794)(0.2 0.2 0.2 0.2 0.2)(0.004878049 0.004878049 0.004878049 0.004878049 0.980487805)(0.969230769 0.007692308 0.007692308 0.007692308 0.007692308)) ;
}
