net 
{ 
}
node Act2 
{
  states = ( "[1_1.75]" "_1.75_2.5]" "_2.5_3.25]" "_3.25_4]" );
}
node Act3 
{
  states = ( "[1_1.5]" "_1.5_2]" "_2_2.5]" "_2.5_3]" );
}
node Act4 
{
  states = ( "[0_0.5]" "_0.5_1]" "_1_1.5]" "_1.5_2]" );
}
node Ch_Nn1 
{
  states = ( "[3.46574_3.74299]" "_3.74299_4.02025]" "_4.02025_4.29751]" "_4.29751_4.57477]" "_4.57477_4.85203]" );
}
node Ch_Nn2 
{
  states = ( "[3.46574_3.74299]" "_3.74299_4.02025]" "_4.02025_4.29751]" "_4.29751_4.57477]" "_4.57477_4.85203]" );
}
potential ( Act2 ) 
{
  data = ( 0.32692308 0.01923077 0.09615385 0.55769231 );
}
potential ( Act3 ) 
{
  data = ( 0.09615385 0.01923077 0.01923077 0.86538462 );
}
potential ( Act4 | Act2 Act3 ) 
{
  data = (((0.25 0.25 0.25 0.25)(0.25 0.25 0.25 0.25)(0.25 0.25 0.25 0.25)(0.003846154 0.003846154 0.003846154 0.988461538))((0.25 0.25 0.25 0.25)(0.25 0.25 0.25 0.25)(0.25 0.25 0.25 0.25)(0.25 0.25 0.25 0.25))((0.95588235 0.01470588 0.01470588 0.01470588)(0.25 0.25 0.25 0.25)(0.25 0.25 0.25 0.25)(0.25 0.25 0.25 0.25))((0.25 0.25 0.25 0.25)(0.25 0.25 0.25 0.25)(0.25 0.25 0.25 0.25)(0.002212389 0.002212389 0.002212389 0.993362832))) ;
}
potential ( Ch_Nn1 | Act2 ) 
{
  data = ((0.01176471 0.01176471 0.01176471 0.01176471 0.95294118)(0.2 0.2 0.2 0.2 0.2)(0.84 0.04 0.04 0.04 0.04)(0.006896552 0.006896552 0.006896552 0.006896552 0.972413793)) ;
}
potential ( Ch_Nn2 | Ch_Nn1 ) 
{
  data = ((0.03333333 0.03333333 0.03333333 0.03333333 0.86666667)(0.2 0.2 0.2 0.2 0.2)(0.2 0.2 0.2 0.2 0.2)(0.2 0.2 0.2 0.2 0.2)(0.985714286 0.003571429 0.003571429 0.003571429 0.003571429)) ;
}
