net 
{ 
}
node L_Tp4 
{
  states = ( "[0_0.5]" "_0.5_1]" );
}
node L_Tp5 
{
  states = ( "[0_0.5]" "_0.5_1]" );
}
node Act1 
{
  states = ( "[0_1]" "_1_2]" "_2_3]" "_3_4]" );
}
node Act2 
{
  states = ( "[1_1.5]" "_1.5_2]" "_2_2.5]" "_2.5_3]" );
}
node Act3 
{
  states = ( "[0_1]" "_1_2]" "_2_3]" "_3_4]" );
}
node Act4 
{
  states = ( "[2_2.25]" "_2.25_2.5]" "_2.5_2.75]" "_2.75_3]" );
}
node Act5 
{
  states = ( "[1_1.25]" "_1.25_1.5]" "_1.5_1.75]" "_1.75_2]" );
}
node Ch_Nn1 
{
  states = ( "[3.46574_4.02025]" "_4.02025_4.57477]" "_4.57477_5.12929]" "_5.12929_5.68381]" "_5.68381_6.23832]" );
}
node Ch_Nn2 
{
  states = ( "[3.46574_3.74299]" "_3.74299_4.02025]" "_4.02025_4.29751]" "_4.29751_4.57477]" "_4.57477_4.85203]" );
}
node Ch_Nn3 
{
  states = ( "[3.46574_4.10547]" "_4.10547_4.74521]" "_4.74521_5.38494]" "_5.38494_6.02467]" "_6.02467_6.66441]" );
}
node Ch_Nn4 
{
  states = ( "[4.85203_5.12929]" "_5.12929_5.40655]" "_5.40655_5.68381]" "_5.68381_5.96107]" "_5.96107_6.23832]" );
}
node Ch_Nn5 
{
  states = ( "[4.85203_5.21451]" "_5.21451_5.57698]" "_5.57698_5.93946]" "_5.93946_6.30193]" "_6.30193_6.66441]" );
}
potential ( L_Tp4 ) 
{
  data = ( 0.4722222 0.5277778 );
}
potential ( L_Tp5 ) 
{
  data = ( 0.4722222 0.5277778 );
}
potential ( Act1 ) 
{
  data = ( 0.45833333 0.06944444 0.01388889 0.45833333 );
}
potential ( Act2 ) 
{
  data = ( 0.06944444 0.45833333 0.01388889 0.45833333 );
}
potential ( Act3 ) 
{
  data = ( 0.45833333 0.45833333 0.01388889 0.06944444 );
}
potential ( Act4 | L_Tp4 L_Tp5 ) 
{
  data = (((0.977272727 0.007575758 0.007575758 0.007575758)(0.25 0.25 0.25 0.25))((0.25 0.25 0.25 0.25)(0.006756757 0.006756757 0.006756757 0.979729730))) ;
}
potential ( Act5 | L_Tp4 ) 
{
  data = ((0.95588235 0.01470588 0.01470588 0.01470588)(0.01315789 0.01315789 0.01315789 0.96052632)) ;
}
potential ( Ch_Nn1 | L_Tp4 Act2 ) 
{
  data = (((0.2 0.2 0.2 0.2 0.2)(0.2 0.2 0.2 0.2 0.2)(0.2 0.2 0.2 0.2 0.2)(0.003076923 0.003076923 0.003076923 0.003076923 0.987692308))((0.02222222 0.02222222 0.91111111 0.02222222 0.02222222)(0.987692308 0.003076923 0.003076923 0.003076923 0.003076923)(0.2 0.2 0.2 0.2 0.2)(0.2 0.2 0.2 0.2 0.2))) ;
}
potential ( Ch_Nn2 | Act1 Act2 Act3 ) 
{
  data = ((((0.2 0.2 0.2 0.2 0.2)(0.2 0.2 0.2 0.2 0.2)(0.2 0.2 0.2 0.2 0.2)(0.2 0.2 0.2 0.2 0.2))((0.0004454343 0.0004454343 0.0004454343 0.0004454343 0.9982182628)(0.2 0.2 0.2 0.2 0.2)(0.2 0.2 0.2 0.2 0.2)(0.003076923 0.003076923 0.003076923 0.003076923 0.987692308))((0.2 0.2 0.2 0.2 0.2)(0.2 0.2 0.2 0.2 0.2)(0.2 0.2 0.2 0.2 0.2)(0.2 0.2 0.2 0.2 0.2))((0.2 0.2 0.2 0.2 0.2)(0.2 0.2 0.2 0.2 0.2)(0.2 0.2 0.2 0.2 0.2)(0.2 0.2 0.2 0.2 0.2)))(((0.987692308 0.003076923 0.003076923 0.003076923 0.003076923)(0.2 0.2 0.2 0.2 0.2)(0.2 0.2 0.2 0.2 0.2)(0.2 0.2 0.2 0.2 0.2))((0.2 0.2 0.2 0.2 0.2)(0.2 0.2 0.2 0.2 0.2)(0.2 0.2 0.2 0.2 0.2)(0.2 0.2 0.2 0.2 0.2))((0.2 0.2 0.2 0.2 0.2)(0.2 0.2 0.2 0.2 0.2)(0.2 0.2 0.2 0.2 0.2)(0.2 0.2 0.2 0.2 0.2))((0.2 0.2 0.2 0.2 0.2)(0.2 0.2 0.2 0.2 0.2)(0.2 0.2 0.2 0.2 0.2)(0.2 0.2 0.2 0.2 0.2)))(((0.2 0.2 0.2 0.2 0.2)(0.2 0.2 0.2 0.2 0.2)(0.2 0.2 0.2 0.2 0.2)(0.2 0.2 0.2 0.2 0.2))((0.2 0.2 0.2 0.2 0.2)(0.2 0.2 0.2 0.2 0.2)(0.2 0.2 0.2 0.2 0.2)(0.2 0.2 0.2 0.2 0.2))((0.2 0.2 0.2 0.2 0.2)(0.2 0.2 0.2 0.2 0.2)(0.2 0.2 0.2 0.2 0.2)(0.2 0.2 0.2 0.2 0.2))((0.2 0.2 0.2 0.2 0.2)(0.2 0.2 0.2 0.2 0.2)(0.2 0.2 0.2 0.2 0.2)(0.2 0.2 0.2 0.2 0.2)))(((0.2 0.2 0.2 0.2 0.2)(0.2 0.2 0.2 0.2 0.2)(0.2 0.2 0.2 0.2 0.2)(0.2 0.2 0.2 0.2 0.2))((0.2 0.2 0.2 0.2 0.2)(0.2 0.2 0.2 0.2 0.2)(0.2 0.2 0.2 0.2 0.2)(0.2 0.2 0.2 0.2 0.2))((0.2 0.2 0.2 0.2 0.2)(0.2 0.2 0.2 0.2 0.2)(0.2 0.2 0.2 0.2 0.2)(0.2 0.2 0.2 0.2 0.2))((0.2 0.2 0.2 0.2 0.2)(0.0003898635 0.0003898635 0.9984405458 0.0003898635 0.0003898635)(0.2 0.2 0.2 0.2 0.2)(0.2 0.2 0.2 0.2 0.2)))) ;
}
potential ( Ch_Nn3 | L_Tp4 ) 
{
  data = ((0.01176471 0.01176471 0.01176471 0.01176471 0.95294118)(0.95789474 0.01052632 0.01052632 0.01052632 0.01052632)) ;
}
potential ( Ch_Nn4 | L_Tp4 ) 
{
  data = ((0.95294118 0.01176471 0.01176471 0.01176471 0.01176471)(0.01052632 0.01052632 0.01052632 0.01052632 0.95789474)) ;
}
potential ( Ch_Nn5 | L_Tp5 ) 
{
  data = ((0.95294118 0.01176471 0.01176471 0.01176471 0.01176471)(0.01052632 0.01052632 0.01052632 0.01052632 0.95789474)) ;
}
