net 
{ 
}
node L_Tp2 
{
  states = ( "[0_0.5]" "_0.5_1]" );
}
node Act1 
{
  states = ( "[0_1]" "_1_2]" "_2_3]" "_3_4]" );
}
node Act2 
{
  states = ( "[0_0.75]" "_0.75_1.5]" "_1.5_2.25]" "_2.25_3]" );
}
node Ch_Nn1 
{
  states = ( "[4.15888_4.65999]" "_4.65999_5.16109]" "_5.16109_5.6622]" "_5.6622_6.1633]" "_6.1633_6.66441]" );
}
node Ch_Nn2 
{
  states = ( "[4.85203_5.21451]" "_5.21451_5.57698]" "_5.57698_5.93946]" "_5.93946_6.30193]" "_6.30193_6.66441]" );
}
potential ( L_Tp2 ) 
{
  data = ( 0.02678571 0.97321429 );
}
potential ( Act1 ) 
{
  data = ( 0.37946429 0.27232143 0.07589286 0.27232143 );
}
potential ( Act2 ) 
{
  data = ( 0.23660714 0.02232143 0.02232143 0.71875000 );
}
potential ( Ch_Nn1 | Act1 Act2 ) 
{
  data = (((0.2 0.2 0.2 0.2 0.2)(0.2 0.2 0.2 0.2 0.2)(0.2 0.2 0.2 0.2 0.2)(0.0005934718 0.0005934718 0.9976261128 0.0005934718 0.0005934718))((0.995854922 0.001036269 0.001036269 0.001036269 0.001036269)(0.2 0.2 0.2 0.2 0.2)(0.2 0.2 0.2 0.2 0.2)(0.004081633 0.983673469 0.004081633 0.004081633 0.004081633))((0.01176471 0.01176471 0.01176471 0.01176471 0.95294118)(0.01176471 0.01176471 0.01176471 0.01176471 0.95294118)(0.01176471 0.01176471 0.01176471 0.01176471 0.95294118)(0.01176471 0.95294118 0.01176471 0.01176471 0.01176471))((0.2 0.2 0.2 0.2 0.2)(0.2 0.2 0.2 0.2 0.2)(0.2 0.2 0.2 0.2 0.2)(0.0008298755 0.0008298755 0.0008298755 0.0008298755 0.9966804979))) ;
}
potential ( Ch_Nn2 | L_Tp2 Act2 ) 
{
  data = (((0.2 0.2 0.2 0.2 0.2)(0.91111111 0.02222222 0.02222222 0.02222222 0.02222222)(0.2 0.2 0.2 0.2 0.2)(0.2 0.2 0.2 0.2 0.2))((0.001904762 0.001904762 0.001904762 0.001904762 0.992380952)(0.2 0.2 0.2 0.2 0.2)(0.02222222 0.02222222 0.02222222 0.02222222 0.91111111)(0.000623053 0.000623053 0.000623053 0.000623053 0.997507788))) ;
}
